73 -106 -61 -11 -113 69 -91 -13 108 127 111 -50 55 35 -80 45 -95 60 -62 -69 108 91 -128 -65 63 -53 -123 -57 64 -67 -77 -121 121 -52 -74 81 104 10 -78 50 11 -74 1 -100 11 14 -53 4 56 -80 -34 32 72 80 87 26 -71 18 91 -58 55 -92 -61 -56
94 127 34 46 44 -16 -28 94 -2 -121 81 45 91 -31 48 126 -73 44 117 75 -72 -73 103 71 64 48 57 -117 105 -65 120 -80 -52 -118 32 105 61 -102 84 119 114 36 60 -74 -17 126 -17 101 21 -84 59 -51 3 -65 -3 54 -109 -58 -77 125 -109 -55 -113 -29
-119 110 21 -81 -83 -108 82 127 -69 -110 -99 125 88 94 43 -122 -89 5 -123 64 69 -79 103 -41 56 -54 110 -72 6 50 82 54 80 -121 93 -91 -3 -15 80 9 94 84 -118 4 124 40 22 89 108 -100 110 -28 -127 13 23 67 121 41 99 -111 62 2 105 40
74 118 21 -42 -71 -100 -82 -19 94 -43 83 -126 32 70 86 67 42 52 -4 68 34 70 -96 -55 -110 74 109 95 -43 -44 -84 123 -72 35 25 8 3 -116 -16 -26 127 -110 28 -107 62 79 57 -12 16 -34 -121 83 -38 -77 31 -75 45 -69 -84 1 52 119 119 21
-95 66 49 97 -61 117 -21 -112 -99 -52 14 -84 118 103 -107 106 -6 -65 -88 -25 -84 -49 -92 124 68 -66 -122 85 -17 107 96 -89 62 31 9 122 -110 34 22 -16 -109 21 1 30 81 -121 -97 -117 45 -98 51 94 -52 -58 105 101 19 -27 54 -65 124 -18 25 -108
20 95 29 36 -46 -23 49 121 23 -43 106 -52 -126 124 57 82 107 114 79 -66 28 -70 -108 110 -35 -75 72 11 -28 -69 -71 -74 26 37 40 -98 -35 55 18 -93 23 -81 85 -41 -28 -37 -23 -52 -9 74 60 33 93 -106 -55 -120 -87 22 96 84 116 51 -103 32
-9 51 122 -38 94 16 82 10 -108 114 -61 -68 -3 1 -49 -68 -112 -80 -46 77 -102 63 85 -84 -120 109 12 26 -65 -102 11 50 -18 11 -34 -2 -66 -27 -2 59 71 -16 92 110 -74 58 108 -42 99 -44 -78 39 28 52 114 7 -10 -109 73 45 -68 20 -119 -7
-80 96 72 -49 -20 -40 38 -21 125 38 65 -98 -123 51 49 -91 44 56 40 -89 -123 68 11 -45 124 105 -97 68 127 -79 1 26 36 -29 -77 3 66 77 0 -8 0 45 -85 -10 -117 -107 44 21 -12 -1 46 64 93 100 -50 93 -55 52 -5 115 -91 -68 84 119
100 12 -114 -93 50 -34 26 -103 82 84 125 114 -21 103 103 -45 -124 -50 16 -99 -93 22 -90 -29 111 31 2 125 117 23 -53 24 -66 -5 44 -16 -63 90 39 37 39 127 -29 -92 127 38 57 52 -76 -126 -68 44 -29 -121 -97 109 47 87 110 -61 -104 21 32 124
16 4 79 18 -5 62 -8 39 125 44 -107 -99 126 -25 -59 62 70 -11 -113 92 -78 -88 -85 -113 19 -108 74 -128 91 -40 -30 -80 73 -2 85 8 42 107 -115 -112 -104 -109 32 -12 85 -21 -66 -34 -23 -45 -67 -11 -77 -42 -58 -120 57 -55 -52 52 -89 83 63 -12
78 -122 -26 -118 -53 -86 104 -67 58 -68 55 -72 78 -86 119 -98 26 -121 74 -40 -38 -50 70 62 -6 49 -30 117 11 -113 -111 -53 78 -32 -96 -7 -49 -20 16 -68 96 117 105 30 -83 -118 7 8 127 48 -64 -32 4 113 25 51 -37 72 -81 -34 -17 -128 126 10
-94 117 29 12 -75 -120 -96 46 32 -124 116 6 23 -28 -86 -121 79 61 -84 91 69 -52 116 103 120 -41 -102 62 -14 101 -39 -20 -96 0 -108 18 54 -16 -90 -78 -80 -29 -108 38 76 -76 28 120 24 -34 64 -125 -32 -102 -68 58 86 -53 20 -110 4 19 -64 114
80 -28 -32 20 103 4 -43 -66 61 -45 32 101 -25 -9 7 69 19 -30 11 -45 -86 6 -6 25 -16 -78 3 -55 19 -33 37 52 -89 54 91 -34 -113 -18 -30 117 -120 73 90 -2 -88 -109 -78 22 -122 79 44 -31 123 -6 16 -96 -70 -66 -62 -120 -37 32 -121 -47
-115 86 -16 -13 -59 -83 37 125 -52 -124 72 114 -3 23 -21 -7 76 -34 12 -26 -98 120 -106 -58 126 120 76 122 -83 -82 -103 8 37 -37 -86 20 -109 21 -12 -115 -123 4 12 63 -13 -113 60 -61 16 5 27 -70 61 -15 -59 22 57 -19 12 96 2 -121 127 111
-102 114 -24 -8 -35 -12 -11 -111 6 71 -91 6 109 10 66 14 124 65 -104 110 -74 -23 100 -4 -84 16 62 -124 31 15 30 -111 -28 -17 -76 -29 -124 -114 59 25 99 121 108 -126 52 -26 -66 -75 110 77 127 -47 -21 87 102 92 13 77 92 93 -26 113 67 120
46 61 -53 117 36 57 47 82 101 -117 -58 -46 -30 97 -31 -38 -107 93 -48 44 -121 122 20 -81 -39 16 -125 47 83 57 124 -106 8 -13 115 48 -37 -108 30 101 -122 -5 113 -12 47 -105 -64 -14 81 116 92 101 -35 -76 -125 20 6 -35 -13 121 86 50 -36 37
49 -97 118 65 1 -98 84 -8 -9 73 -64 -78 -18 31 36 -6 108 -111 -54 3 88 -85 -79 81 110 -100 85 112 -107 -46 -67 -3 114 91 6 19 -40 87 81 34 60 0 9 34 -119 28 -53 -122 28 34 -111 -56 31 91 -50 57 -38 54 -36 63 54 42 90 -53
-15 -27 80 28 43 24 -33 -18 -86 79 14 -35 112 -45 41 115 123 -8 29 -39 26 47 -15 46 24 38 -96 -87 44 118 -122 34 88 -43 -11 -78 -94 -54 94 3 -35 -31 8 74 63 116 105 29 43 0 101 -16 -13 -22 93 -125 58 -65 -118 110 31 -30 125 -113
113 53 -53 111 100 121 -21 70 -6 36 -81 63 -4 59 -29 -88 -70 8 110 -91 -81 -95 -123 -40 104 27 -120 -51 -75 26 -112 -126 -38 38 88 -73 97 -16 -117 9 123 28 21 82 120 102 48 0 70 -118 108 21 -44 -49 -56 -98 91 105 119 11 -78 -127 107 -87
12 -44 -126 117 98 28 -83 -46 -114 11 62 106 -4 -9 -52 -25 120 16 55 -105 79 29 -103 -38 115 16 -68 4 -43 -3 3 -40 51 69 60 -30 47 -83 90 119 86 -54 101 44 -63 53 51 21 -45 -64 -119 45 -26 14 -18 74 110 70 20 -16 51 63 -76 13
-94 17 -57 52 49 112 -32 -119 -19 -45 -59 -76 38 -12 68 -88 10 82 103 65 -13 46 68 66 90 -54 114 -57 4 -114 68 50 -2 20 59 55 -3 96 123 -28 -121 -3 -49 51 -38 -113 -20 77 -3 14 10 119 97 -55 126 8 -58 95 68 110 -94 67 -100 -55
10 30 -55 25 54 -24 -69 -30 -87 -28 -19 70 51 85 -119 -104 120 110 120 0 14 77 -25 -2 -50 -26 39 -33 107 -101 18 -74 -76 -11 -60 18 -3 122 58 116 -128 -22 -41 108 -114 -127 25 -35 125 -34 -94 115 53 -8 83 -122 -71 10 -118 -70 108 25 32 -109
-45 -102 20 118 34 123 -31 -104 59 -27 -80 28 -16 75 -100 65 -127 -59 -107 -63 73 17 -87 69 -37 6 -126 27 -95 70 25 -7 125 -118 123 35 94 12 33 -119 1 9 -52 90 83 54 26 96 -63 9 13 -78 -3 -47 -121 103 9 38 38 -11 -52 -102 -25 43
66 -13 -20 -22 102 -115 -66 109 -96 90 2 125 -60 -52 -66 -10 70 -37 -45 -42 19 120 -55 -100 -123 86 -18 -50 -38 -8 34 -65 -19 12 65 -90 68 -43 4 -15 -76 58 -97 -51 108 83 -70 105 -119 93 57 56 16 -41 113 20 120 -78 -92 -37 -101 97 40 -109
-73 121 101 92 -108 4 -96 45 73 56 4 42 -91 -110 101 -105 39 -80 100 -118 -69 46 112 49 -35 -123 -109 75 51 -6 -50 -30 -34 -73 25 -19 -24 116 18 110 70 109 10 -1 -3 -122 -95 -107 -110 -38 124 27 -87 -45 51 -32 45 98 -74 102 70 70 -67 -21
-64 29 -78 -28 51 -8 24 -94 -90 -127 -45 25 66 115 -117 89 -125 -64 -45 111 -13 60 92 61 65 42 -11 -124 70 78 89 -116 15 29 94 -58 -121 36 107 -57 26 -123 42 -65 42 -114 -101 52 60 127 64 -36 44 -12 19 6 79 48 44 15 20 88 127 127
16 -118 63 -6 -84 51 -36 -84 56 78 -123 95 -120 102 50 -80 -33 -89 -55 36 -33 96 -62 -10 -87 75 89 1 -84 -122 -121 -4 42 -58 -110 -38 -127 68 -49 -28 120 -104 2 74 -34 100 -53 127 -17 -8 -79 125 106 33 -82 -98 -49 -64 86 125 -116 122 -70 -61
-2 -65 7 67 -44 -71 -69 84 71 -73 -112 93 22 6 -104 39 -47 -92 -120 110 112 12 89 91 53 49 -68 73 109 114 -114 48 -9 -53 -123 -73 -97 97 -54 -59 -105 -83 47 -13 68 -87 -18 -36 -95 22 93 -29 -74 -3 100 25 101 73 89 -9 48 -124 -41 -26
45 -85 73 60 -89 22 -26 -113 -80 28 48 -98 -19 -105 63 -77 -20 -104 61 34 -101 -60 -27 -59 67 76 46 27 79 25 -103 -34 -101 49 126 98 66 110 38 -95 -60 -1 -41 118 82 -35 38 7 42 49 19 -97 79 -14 5 17 -7 -89 55 -95 6 87 -120 -80
-84 5 0 83 13 8 43 110 114 31 -95 40 -91 108 77 127 82 -45 -5 -5 -95 114 -127 -24 -40 -116 20 8 -49 88 15 91 -54 1 -36 1 -29 -76 97 28 109 -93 31 -60 119 81 -112 36 -37 -35 -30 120 12 110 -69 63 -108 -31 16 -75 -97 -67 -91 -114
-56 43 8 81 94 -89 18 -87 7 86 42 -79 78 79 97 -46 -126 22 -108 -22 119 -21 -15 16 84 111 -68 -101 40 -122 44 -75 -103 -78 -56 62 99 106 -20 -85 -81 17 -117 92 74 -22 -76 125 -128 -89 66 -121 70 102 60 -102 -50 -5 72 120 -125 63 41 -13
-63 56 -71 90 80 -89 -29 -96 55 78 125 52 -82 69 -21 112 -120 105 -86 -113 16 -128 -67 -104 -126 -44 -42 -59 78 -71 -16 -112 123 122 -125 90 75 -63 -72 -30 -88 7 82 102 -1 90 62 -6 -114 -71 31 -127 26 -38 77 14 60 66 118 13 -46 -49 -123 93
66 -68 81 82 57 63 49 -116 -109 17 -78 55 -29 6 35 -101 9 -80 -62 -63 127 -113 88 -9 -35 -8 -116 23 -93 105 66 54 58 92 58 -54 98 62 51 83 -114 75 86 -54 -127 69 -18 -45 114 73 -101 -33 30 1 -64 -53 -112 -128 -17 67 106 37 88 38
-10 113 -65 -70 -20 -73 -105 -23 24 13 111 21 68 -17 -26 71 88 23 -108 78 71 71 64 -38 32 -2 38 107 -117 -18 16 -97 -71 -80 -3 42 19 -42 59 2 124 -66 -117 75 34 43 -82 -109 67 107 99 -100 127 113 21 79 4 -32 8 2 92 125 -86 81
109 67 33 -124 15 -46 -74 58 -59 60 -87 98 117 20 24 -16 -103 -1 13 -10 82 26 29 50 50 -53 42 29 27 68 -49 -25 -16 93 -87 61 -85 86 70 -26 35 -93 -43 -92 -82 33 105 42 98 -57 -47 -51 122 9 83 92 49 -76 -54 39 -81 13 22 30
-112 -63 72 33 -46 44 -124 52 65 15 17 -49 60 -75 -125 110 47 -46 -48 -95 50 0 -102 5 8 112 -5 111 -92 61 -5 39 -118 73 16 73 69 112 41 15 63 -122 32 -109 -33 12 -121 -49 -16 117 -73 -24 23 114 -83 -126 -54 47 -74 -79 -113 -47 -81 -53
-114 58 -115 114 118 -76 -23 77 -33 -74 -82 43 67 -128 34 125 -50 117 52 -127 -99 108 13 -109 -114 -24 -68 -123 106 82 31 -69 -117 58 -6 59 -19 -80 4 101 113 -25 -123 -57 67 49 80 45 -78 -59 86 92 57 -97 -92 124 107 -84 -85 -77 -117 -121 94 52
-34 28 28 -13 -42 -124 -107 -40 79 -21 -5 -13 -82 -4 -111 -84 25 22 100 117 -74 -81 -118 68 -70 23 126 101 119 -6 48 50 8 92 72 -41 -38 -60 -71 57 -113 44 -72 -46 -9 70 -40 99 104 -106 -119 -45 -23 -37 6 -83 89 -33 -111 87 102 -49 50 52
-23 9 63 79 119 -84 -36 -113 125 -55 -74 -14 -72 -78 -88 -110 -24 -128 32 -125 -17 66 78 -36 -74 65 97 -125 -30 -24 -65 112 -96 59 -2 8 -76 115 32 -47 -93 -109 -83 58 44 1 64 -83 41 -1 -55 -74 -108 96 11 -123 38 71 -42 -39 29 60 115 -121
60 91 -22 -73 -52 66 -71 -65 -94 -25 -4 91 -35 -75 0 5 -117 -88 -95 108 -64 -60 -111 -101 -20 20 14 -18 84 -40 -25 73 45 113 -20 34 -100 -25 -43 -13 98 -42 -6 -94 105 28 -102 -43 8 -32 -83 -52 -40 -50 25 -59 103 -52 -60 34 -20 11 -20 -47
123 -120 36 -52 98 -123 -114 -127 -24 114 96 -97 -79 -107 8 46 -10 113 16 -68 0 -99 56 81 -53 -18 -76 -12 -7 -103 24 -104 111 -37 -73 67 -33 116 56 123 -104 -26 26 -109 119 -5 54 118 45 48 99 83 -128 67 92 0 82 84 127 -101 -123 -75 -27 50
-107 118 -31 -57 -3 -9 64 -38 -13 29 -122 -57 -73 47 108 78 -5 -64 90 -103 -55 125 -120 -88 44 62 23 -53 -29 46 13 124 76 77 -71 120 85 -20 -93 86 -36 -51 92 -73 -44 80 -128 -46 59 -46 -110 -108 73 51 84 -46 49 -111 22 -67 114 115 -23 0
-37 -76 55 64 -112 123 127 -95 73 -61 -103 -62 23 94 -19 -125 -56 -123 -87 -36 63 -68 -36 -122 30 -101 -50 -61 -85 37 28 -61 79 -101 -120 7 95 -10 75 25 -3 32 86 88 50 -81 123 29 -56 -7 118 54 12 -75 58 -116 -126 -5 -46 45 -16 -43 -32 61
71 85 -108 -66 -64 -32 -83 5 -90 -58 -20 -65 114 -37 63 -128 117 -37 -89 51 -106 -74 30 -56 -87 -32 119 -56 -58 67 -110 -17 -41 61 53 30 2 125 24 -103 -44 -105 77 123 -72 -27 23 67 18 65 -54 3 -67 82 -124 -12 -110 -118 -78 78 -124 28 -8 -93
-16 -118 54 52 -97 29 67 -72 -98 123 -6 -93 80 -81 -39 -23 59 13 -109 -58 95 -57 48 -87 78 21 -110 96 -58 106 -28 111 -42 41 33 1 13 -59 28 36 -115 20 71 25 -81 -60 34 50 123 25 54 92 116 32 -57 76 103 65 -26 20 117 124 32 -73
63 -39 42 52 42 105 -46 -51 -57 -64 -27 116 7 -124 14 -66 1 87 -8 -82 -53 -93 -2 98 24 -54 11 54 -78 -23 -106 -126 -31 -28 -72 -3 100 -117 -82 92 -41 -113 -115 16 -8 38 -47 117 -61 23 126 -89 83 -72 -75 -19 20 84 74 -10 4 -107 -77 22
0 -41 47 -70 76 -4 47 115 28 62 111 15 -116 -88 -28 37 79 -9 37 107 54 49 -12 34 103 58 -87 -59 61 87 -61 -69 -30 96 -49 89 -27 45 121 33 -28 106 -100 59 49 40 -86 83 -66 48 93 73 27 -92 44 114 92 4 56 7 82 -52 114 49
-82 9 -86 -116 31 -88 45 -127 46 -67 111 50 -34 -22 -6 113 -119 -13 -42 7 95 68 111 118 32 -98 -99 -45 40 -85 88 -79 75 -52 35 48 42 -64 85 28 27 -116 -43 6 -76 -42 -67 83 -20 -123 -88 68 40 113 86 -7 9 -108 71 94 -73 -121 -12 -52
108 -91 55 64 63 68 -108 117 95 14 92 -65 34 -6 -105 -95 -69 54 -107 15 -118 -44 -13 -98 -120 -44 78 76 -40 -128 -41 19 111 103 -98 109 17 4 -29 88 106 -69 -103 -27 62 19 -5 -23 -88 -97 42 29 101 -120 -101 98 61 38 19 -3 50 -26 63 -105
-102 94 -77 -8 -43 40 116 38 -45 51 36 27 -77 -126 -107 -82 111 -75 -128 -89 -122 75 74 -26 -83 105 88 -31 18 -47 43 -42 -21 -71 13 -110 73 70 108 21 62 64 -84 -48 -91 40 115 -5 55 37 0 -41 -77 60 -79 22 -121 56 68 -117 -121 81 71 5
4 37 -104 -84 95 103 -39 76 9 113 40 3 15 -58 -89 -57 127 47 -104 -82 122 94 -29 90 52 106 53 76 94 26 63 83 -11 126 -47 -107 -75 46 30 104 122 -68 -84 32 -61 14 8 54 -121 -111 115 -18 73 -80 -127 -10 74 19 95 -17 -110 -119 70 47
-47 47 -32 -37 -42 74 -45 -4 -52 25 76 -57 24 78 -62 -16 -124 37 18 60 -42 69 -66 25 -112 -122 56 70 -121 104 26 -120 66 -10 -10 82 -49 75 -42 15 35 54 15 -97 -83 -90 32 35 58 -35 -124 -20 34 61 91 -50 97 -112 -73 67 -23 -34 47 53
73 100 -35 83 14 10 21 -48 -120 -102 -29 -125 -77 -102 -81 62 -95 117 -106 125 -54 -90 -15 5 120 61 -2 22 -88 125 89 -7 -112 -12 10 58 32 118 -12 -20 -108 -89 94 -26 -1 118 -53 72 -128 8 -116 -28 -118 3 24 22 38 64 -73 113 -24 -75 -49 69
-112 34 62 56 -45 73 58 -4 106 -37 50 -56 -77 -23 7 -82 5 85 -126 -117 -26 12 -52 2 -9 -79 89 -14 117 -51 11 53 -100 -112 17 -83 -46 20 70 76 -33 117 25 14 63 -1 -123 -72 -72 83 -59 -28 -103 114 -59 99 -89 -117 12 66 58 16 -99 -7
52 106 -75 -53 54 -102 104 49 12 -117 -104 -49 59 -12 36 80 93 66 -109 -55 75 10 -8 78 -110 -27 93 -14 55 114 89 -19 32 26 -25 118 115 -122 7 -3 23 24 -8 107 121 62 -123 -65 58 106 51 -94 34 17 71 88 92 -22 -102 4 119 -116 -76 108
-115 80 3 -7 81 -68 -103 -126 -94 -75 -10 118 126 -9 22 -63 94 10 -25 -121 49 124 31 7 -124 6 51 119 -7 -9 119 40 -117 40 124 -77 7 18 -93 104 -108 -115 -26 -39 -85 69 50 -1 -70 -35 -123 -66 -13 -50 -7 -115 -25 0 -49 -94 -63 -30 -13 22
91 116 65 -87 -116 -32 115 10 -15 122 -12 -65 -19 63 -42 37 43 98 -71 -100 -62 -112 23 5 107 8 69 -61 8 -82 7 81 67 -71 -124 19 45 -3 -1 -117 92 90 110 -117 99 -75 59 65 2 -113 17 -8 -63 2 -41 -24 -41 -107 10 1 98 -59 -66 46
-63 102 -16 37 -80 -125 92 -66 -120 -74 -17 -29 -12 94 -37 83 -57 35 -18 65 -58 -74 58 -51 5 69 -90 -88 -78 16 -57 -70 -102 55 107 74 99 -63 -59 28 -41 -19 88 91 61 127 -28 127 30 -122 -64 119 7 18 77 -36 -127 11 96 -83 126 2 -32 25
-62 -106 -88 20 -75 -119 109 0 -90 8 45 9 79 -60 -57 -28 -76 -103 125 127 12 -103 110 -21 -39 113 23 -80 -63 -19 101 -66 45 -29 73 -55 -105 62 14 62 -90 98 27 -98 -2 -14 -93 42 31 -113 -84 0 2 -97 -56 -108 35 -95 -17 107 121 0 124 -90
-60 -66 -16 -25 22 -25 -37 69 -5 84 53 -1 35 -30 -102 59 -23 -25 125 92 94 -123 -49 -14 64 -72 121 -66 -37 -26 -77 -118 -93 -15 -2 79 112 46 1 -48 -73 3 -91 -122 -18 -39 -72 121 -127 61 -95 -45 15 34 37 76 13 -5 -23 16 -17 7 91 19
109 6 60 -59 -39 -121 24 -96 -104 42 -93 126 -62 108 -113 91 48 30 -15 -55 -123 -1 69 -51 -93 125 -29 -49 55 98 -87 -19 31 -51 -46 -38 68 -13 15 -42 120 -3 7 94 19 -81 68 66 -13 16 5 -13 -53 7 85 -75 -31 -10 -58 67 -90 -106 -11 61
53 -16 -59 62 92 26 85 -51 51 -22 -101 -23 -24 -27 57 -45 -87 118 -15 -71 48 -4 34 100 86 30 85 -44 -127 64 -13 12 -25 -85 -32 99 -5 -128 -43 -60 12 48 5 -32 -47 -124 -86 -82 -1 118 121 -94 121 -102 -100 -56 85 -122 52 49 -32 27 15 106
49 104 97 -47 53 -76 54 84 105 -21 27 -97 -6 62 -56 -32 114 -41 -94 -58 -20 12 -82 -88 -38 106 53 -22 -30 100 111 77 72 116 -107 -2 -17 77 55 -120 -36 -86 -128 -54 95 52 52 53 -109 -95 -78 -113 -1 102 -120 63 116 38 51 -122 -19 115 35 54
8 109 -77 -88 81 81 113 100 45 32 -8 116 -74 -81 27 27 20 120 -3 -90 84 -38 9 -61 98 79 -75 40 -81 -5 -43 -95 -110 90 -128 -7 -32 49 36 64 -123 -20 57 -58 110 -71 -64 12 -1 -125 -66 16 -86 -113 -102 45 -52 -18 -57 -37 -1 88 -72 108
