73 -106 -61 -11 -113 69 -91 -13 108 127 111 -50 55 35 -80 45 -95 60 -62 -69 108 91 -128 -65 63 -53 -123 -57 64 -67 -77 -121
121 -52 -74 81 104 10 -78 50 11 -74 1 -100 11 14 -53 4 56 -80 -34 32 72 80 87 26 -71 18 91 -58 55 -92 -61 -56
94 127 34 46 44 -16 -28 94 -2 -121 81 45 91 -31 48 126 -73 44 117 75 -72 -73 103 71 64 48 57 -117 105 -65 120 -80
-52 -118 32 105 61 -102 84 119 114 36 60 -74 -17 126 -17 101 21 -84 59 -51 3 -65 -3 54 -109 -58 -77 125 -109 -55 -113 -29
-119 110 21 -81 -83 -108 82 127 -69 -110 -99 125 88 94 43 -122 -89 5 -123 64 69 -79 103 -41 56 -54 110 -72 6 50 82 54
80 -121 93 -91 -3 -15 80 9 94 84 -118 4 124 40 22 89 108 -100 110 -28 -127 13 23 67 121 41 99 -111 62 2 105 40
74 118 21 -42 -71 -100 -82 -19 94 -43 83 -126 32 70 86 67 42 52 -4 68 34 70 -96 -55 -110 74 109 95 -43 -44 -84 123
-72 35 25 8 3 -116 -16 -26 127 -110 28 -107 62 79 57 -12 16 -34 -121 83 -38 -77 31 -75 45 -69 -84 1 52 119 119 21
-95 66 49 97 -61 117 -21 -112 -99 -52 14 -84 118 103 -107 106 -6 -65 -88 -25 -84 -49 -92 124 68 -66 -122 85 -17 107 96 -89
62 31 9 122 -110 34 22 -16 -109 21 1 30 81 -121 -97 -117 45 -98 51 94 -52 -58 105 101 19 -27 54 -65 124 -18 25 -108
20 95 29 36 -46 -23 49 121 23 -43 106 -52 -126 124 57 82 107 114 79 -66 28 -70 -108 110 -35 -75 72 11 -28 -69 -71 -74
26 37 40 -98 -35 55 18 -93 23 -81 85 -41 -28 -37 -23 -52 -9 74 60 33 93 -106 -55 -120 -87 22 96 84 116 51 -103 32
-9 51 122 -38 94 16 82 10 -108 114 -61 -68 -3 1 -49 -68 -112 -80 -46 77 -102 63 85 -84 -120 109 12 26 -65 -102 11 50
-18 11 -34 -2 -66 -27 -2 59 71 -16 92 110 -74 58 108 -42 99 -44 -78 39 28 52 114 7 -10 -109 73 45 -68 20 -119 -7
-80 96 72 -49 -20 -40 38 -21 125 38 65 -98 -123 51 49 -91 44 56 40 -89 -123 68 11 -45 124 105 -97 68 127 -79 1 26
36 -29 -77 3 66 77 0 -8 0 45 -85 -10 -117 -107 44 21 -12 -1 46 64 93 100 -50 93 -55 52 -5 115 -91 -68 84 119
100 12 -114 -93 50 -34 26 -103 82 84 125 114 -21 103 103 -45 -124 -50 16 -99 -93 22 -90 -29 111 31 2 125 117 23 -53 24
-66 -5 44 -16 -63 90 39 37 39 127 -29 -92 127 38 57 52 -76 -126 -68 44 -29 -121 -97 109 47 87 110 -61 -104 21 32 124
16 4 79 18 -5 62 -8 39 125 44 -107 -99 126 -25 -59 62 70 -11 -113 92 -78 -88 -85 -113 19 -108 74 -128 91 -40 -30 -80
73 -2 85 8 42 107 -115 -112 -104 -109 32 -12 85 -21 -66 -34 -23 -45 -67 -11 -77 -42 -58 -120 57 -55 -52 52 -89 83 63 -12
78 -122 -26 -118 -53 -86 104 -67 58 -68 55 -72 78 -86 119 -98 26 -121 74 -40 -38 -50 70 62 -6 49 -30 117 11 -113 -111 -53
78 -32 -96 -7 -49 -20 16 -68 96 117 105 30 -83 -118 7 8 127 48 -64 -32 4 113 25 51 -37 72 -81 -34 -17 -128 126 10
-94 117 29 12 -75 -120 -96 46 32 -124 116 6 23 -28 -86 -121 79 61 -84 91 69 -52 116 103 120 -41 -102 62 -14 101 -39 -20
-96 0 -108 18 54 -16 -90 -78 -80 -29 -108 38 76 -76 28 120 24 -34 64 -125 -32 -102 -68 58 86 -53 20 -110 4 19 -64 114
80 -28 -32 20 103 4 -43 -66 61 -45 32 101 -25 -9 7 69 19 -30 11 -45 -86 6 -6 25 -16 -78 3 -55 19 -33 37 52
-89 54 91 -34 -113 -18 -30 117 -120 73 90 -2 -88 -109 -78 22 -122 79 44 -31 123 -6 16 -96 -70 -66 -62 -120 -37 32 -121 -47
-115 86 -16 -13 -59 -83 37 125 -52 -124 72 114 -3 23 -21 -7 76 -34 12 -26 -98 120 -106 -58 126 120 76 122 -83 -82 -103 8
37 -37 -86 20 -109 21 -12 -115 -123 4 12 63 -13 -113 60 -61 16 5 27 -70 61 -15 -59 22 57 -19 12 96 2 -121 127 111
-102 114 -24 -8 -35 -12 -11 -111 6 71 -91 6 109 10 66 14 124 65 -104 110 -74 -23 100 -4 -84 16 62 -124 31 15 30 -111
-28 -17 -76 -29 -124 -114 59 25 99 121 108 -126 52 -26 -66 -75 110 77 127 -47 -21 87 102 92 13 77 92 93 -26 113 67 120
46 61 -53 117 36 57 47 82 101 -117 -58 -46 -30 97 -31 -38 -107 93 -48 44 -121 122 20 -81 -39 16 -125 47 83 57 124 -106
8 -13 115 48 -37 -108 30 101 -122 -5 113 -12 47 -105 -64 -14 81 116 92 101 -35 -76 -125 20 6 -35 -13 121 86 50 -36 37
